<?xml version="1.0"?>
<opencv_storage>
<opencv_ml_knn>
  <format>3</format>
  <is_classifier>1</is_classifier>
  <default_k>10</default_k>
  <samples type_id="opencv-matrix">
    <rows>110</rows>
    <cols>15</cols>
    <dt>f</dt>
    <data>
      3.26479950e+01 2.73344574e+01 1.87772388e+01 3.25581436e+01
      1.49876266e+02 2.95786247e+01 3.78003426e+01 1.33458054e+02
      4.50854683e+01 3.23421135e+01 1.42727081e+02 3.73664932e+01
      2.60562611e+01 1.39415512e+02 4.05197525e+01 4.51667938e+01
      2.61170197e+01 1.86451969e+01 3.15670986e+01 1.38965942e+02
      2.00223694e+01 3.31768188e+01 1.32806625e+02 2.13812637e+01
      2.82015800e+01 1.38854736e+02 1.48084650e+01 2.63295708e+01
      1.28394775e+02 2.34002342e+01 2.08265877e+01 3.59263954e+01
      3.99434090e+01 2.02571259e+01 8.86519699e+01 2.97810593e+01
      1.78125458e+01 1.02683662e+02 1.67515488e+01 1.12479963e+01
      1.03264679e+02 1.80000629e+01 1.55846462e+01 8.25153427e+01
      2.30457039e+01 3.13272552e+01 2.44829025e+01 2.70736923e+01
      2.28944149e+01 6.45378876e+01 4.77752686e+01 1.62564659e+01
      8.98032913e+01 4.01466255e+01 9.44333839e+00 9.13274689e+01
      3.54488220e+01 1.44460640e+01 7.17023621e+01 3.50475235e+01
      2.81646252e+01 3.10286198e+01 2.35681934e+01 2.14684563e+01
      1.41750809e+02 2.13864155e+01 2.93231125e+01 1.29772949e+02
      3.88520317e+01 2.42646408e+01 1.38309158e+02 3.33214493e+01
      2.32316437e+01 1.29452240e+02 3.08198528e+01 3.94939346e+01
      3.08250179e+01 3.77987137e+01 4.87894058e+01 1.01569153e+02
      2.95433102e+01 6.24089737e+01 1.02175636e+02 6.55661469e+01
      5.93016014e+01 1.12161873e+02 5.54276543e+01 6.05657959e+01
      1.02860588e+02 4.94896584e+01 4.66364098e+01 2.78715267e+01
      2.58082619e+01 2.25475159e+01 6.98190613e+01 4.25566711e+01
      1.69713631e+01 8.55440140e+01 3.64969521e+01 1.12884998e+01
      7.55425262e+01 3.92512512e+01 1.65394230e+01 4.86373787e+01
      2.90193844e+01 4.50425682e+01 1.99618702e+01 1.18930330e+01
      1.36039028e+01 3.22788048e+01 2.73888931e+01 7.74761009e+00
      1.77974167e+01 5.79451513e+00 2.94087195e+00 1.64921169e+01
      1.48179305e+00 9.12750244e+00 8.93499184e+00 6.48326015e+00
      4.72991104e+01 3.26596375e+01 2.54559250e+01 3.36740112e+01
      5.27666512e+01 4.37927895e+01 2.91757259e+01 9.70639038e+01
      2.43849316e+01 2.74734402e+01 1.04583458e+02 2.45724678e+01
      3.20643501e+01 9.44601822e+01 2.22309017e+01 4.64831123e+01
      3.08710499e+01 3.62775459e+01 4.04934807e+01 9.67876129e+01
      3.95911827e+01 3.81592255e+01 1.10260391e+02 3.01815090e+01
      3.04118423e+01 1.19519073e+02 3.00067616e+01 2.64180031e+01
      1.22606339e+02 3.33104172e+01 2.77927475e+01 2.73468647e+01
      1.83588791e+01 1.34598665e+01 1.26755733e+01 1.48273582e+01
      2.18514538e+01 9.43717651e+01 3.59725571e+01 1.92833176e+01
      1.04185631e+02 3.17803593e+01 2.60731773e+01 8.11165543e+01
      3.32927284e+01 3.53202744e+01 2.63816128e+01 2.01919842e+01
      1.46680202e+01 7.18504286e+00 4.24883223e+00 2.51268921e+01
      1.21084549e+02 2.66206455e+01 2.40787716e+01 1.17775154e+02
      3.06986313e+01 3.05410786e+01 8.94326324e+01 3.79037971e+01
      2.60481949e+01 1.94025879e+01 2.64366417e+01 6.36582422e+00
      9.54258823e+00 3.24157500e+00 2.80864563e+01 1.13535225e+02
      2.64686813e+01 2.02884731e+01 1.16216194e+02 2.46701965e+01
      2.69224052e+01 9.57905807e+01 2.05276451e+01 2.72213955e+01
      1.54145002e+01 2.59397507e+01 6.62338114e+00 7.60825682e+00
      2.69687891e+00 2.80525990e+01 1.08764000e+02 2.73511372e+01
      2.15519695e+01 1.08780975e+02 2.61144104e+01 2.59292412e+01
      9.13244095e+01 2.11039238e+01 3.20141716e+01 1.09918308e+01
      2.84154606e+01 5.72863579e+00 6.48149300e+00 8.89478981e-01
      2.30103168e+01 9.08746414e+01 3.43217545e+01 1.28295736e+01
      9.28570404e+01 3.52192078e+01 1.13959360e+01 6.84080429e+01
      4.16292038e+01 3.53911781e+01 1.85920582e+01 3.30074081e+01
      4.14082623e+00 6.49337482e+00 1.91226101e+00 2.58244114e+01
      1.00550621e+02 2.96167660e+01 1.99568520e+01 9.94517746e+01
      3.17023697e+01 2.42734585e+01 8.26489944e+01 2.52823811e+01
      3.36675415e+01 3.29180641e+01 1.94687119e+01 7.48823309e+00
      2.72406602e+00 7.94847107e+00 2.85066967e+01 4.94974937e+01
      1.34773827e+01 5.52066803e+01 7.05809555e+01 2.39380989e+01
      5.45856361e+01 7.27906570e+01 2.73102055e+01 3.42970581e+01
      3.13689709e+01 1.26176243e+01 1.22782040e+01 1.64428699e+00
      8.98005295e+00 3.04690552e+01 2.64781475e+01 7.10602379e+00
      5.25983734e+01 7.08928757e+01 2.57867718e+01 4.24289322e+01
      6.58081284e+01 3.45717049e+01 3.72839432e+01 2.65038986e+01
      3.89016609e+01 1.24715881e+01 1.77118802e+00 4.43305922e+00
      3.86547546e+01 1.09571411e+02 2.35950775e+01 3.57380295e+01
      1.05880783e+02 3.11671257e+01 2.56141911e+01 1.07024712e+02
      2.96635418e+01 3.73097496e+01 2.01638412e+01 2.96926517e+01
      7.73596382e+00 3.48473501e+00 2.93621802e+00 3.34020195e+01
      1.02752625e+02 2.53790054e+01 2.71399841e+01 1.00369156e+02
      2.60137386e+01 2.53877945e+01 9.50779419e+01 1.96246090e+01
      2.70642662e+01 4.11699486e+00 1.10016222e+01 1.64861126e+01
      1.05528984e+01 1.11815367e+01 1.46605368e+01 7.23011684e+00
      6.80521202e+00 5.99246693e+00 1.27976406e+00 1.29492798e+01
      2.58344603e+00 5.75148487e+00 1.21904888e+01 3.11911335e+01
      4.29019117e+00 1.10170774e+01 1.41376839e+01 3.40693212e+00
      3.97996497e+00 1.41724319e+01 6.25400963e+01 5.98237896e+00
      4.60203314e+00 3.38286552e+01 3.62302208e+00 7.48820305e+00
      1.15150547e+01 1.48767233e+01 3.26753998e+01 6.05124617e+00
      9.60121918e+00 1.61912594e+01 6.04988718e+00 3.02156591e+00
      2.35747147e+01 3.44766159e+01 5.20959473e+01 2.09445572e+01
      2.86802444e+01 1.05301552e+01 2.17327061e+01 9.85054493e+00
      3.99343705e+00 3.69836388e+01 1.05964994e+01 1.47825422e+01
      8.56828499e+00 5.15267611e+00 2.90396094e+00 2.07251778e+01
      8.55603943e+01 2.04079933e+01 1.57604084e+01 7.31827087e+01
      2.78570976e+01 1.63655319e+01 4.70813751e+01 1.89583397e+01
      2.85539799e+01 4.38647318e+00 1.40440083e+01 1.48002911e+01
      8.82266426e+00 4.43453217e+00 1.26539803e+01 8.51077118e+01
      5.68561983e+00 4.41984081e+00 5.78039169e+01 8.10490608e+00
      9.92512226e+00 2.16342068e+01 2.81940479e+01 4.39055862e+01
      4.43617296e+00 6.40661621e+00 7.98458099e+00 3.26994896e+00
      4.94522095e+00 2.11206398e+01 2.33899441e+01 1.13106050e+01
      1.63433495e+01 2.42954235e+01 1.59577360e+01 9.62837887e+00
      1.53560381e+01 2.32397976e+01 4.72271805e+01 2.09350395e+00
      1.31850042e+01 1.01988716e+01 9.01692772e+00 4.76264906e+00
      3.04888401e+01 8.74601822e+01 1.92464905e+01 3.14176559e+01
      8.34378891e+01 3.53772774e+01 2.63019924e+01 7.16311951e+01
      4.14281616e+01 3.89637070e+01 3.31292605e+00 1.47641058e+01
      1.33466434e+01 2.70102692e+00 3.12232494e+00 1.57834387e+01
      7.08900909e+01 2.42710857e+01 1.61625957e+01 5.51051903e+01
      2.71255684e+01 1.40652046e+01 3.17651367e+01 3.01638775e+01
      3.82352142e+01 9.76506710e+00 1.22040586e+01 1.30549850e+01
      3.18690610e+00 6.00876379e+00 3.04961319e+01 1.05006683e+02
      1.96140976e+01 3.76216621e+01 1.01843964e+02 3.32368164e+01
      3.60274200e+01 9.69343185e+01 3.34162598e+01 4.48941345e+01
      5.70313978e+00 1.86722755e+01 1.68628159e+01 7.25020790e+00
      1.17127597e+00 2.73498631e+01 9.12386169e+01 1.50854549e+01
      3.12887535e+01 8.38848572e+01 3.05055733e+01 3.23036003e+01
      7.20935287e+01 3.33061981e+01 3.32331657e+01 5.25136995e+00
      1.23614721e+01 7.40667677e+00 2.40371609e+00 1.80908704e+00
      1.40607157e+01 1.54456306e+00 4.51423407e+00 3.16592426e+01
      1.00935776e+02 2.55108356e+01 3.52510300e+01 8.99330292e+01
      1.91481285e+01 5.27962379e+01 1.12664032e+01 1.40818729e+01
      4.25563192e+00 1.90048802e+00 2.12087297e+00 8.55583000e+00
      4.42314482e+00 2.65759110e+00 3.29229164e+01 1.02226830e+02
      2.28898296e+01 3.55019073e+01 8.52478638e+01 2.47332764e+01
      4.55302811e+01 6.59918308e+00 2.70527196e+00 1.18512402e+01
      1.14573059e+01 8.53429508e+00 1.09351377e+01 3.14367700e+00
      7.68909121e+00 4.00151215e+01 1.08650040e+02 2.01313591e+01
      4.44744492e+01 9.54668579e+01 2.34383411e+01 4.01785278e+01
      5.88376284e+00 1.12932301e+01 9.41235542e+00 5.01029205e+00
      3.06707907e+00 1.73251495e+01 5.93341589e+00 5.99939823e+00
      3.92417755e+01 1.12753548e+02 2.38591728e+01 3.74379082e+01
      1.04919449e+02 2.47629757e+01 4.12206573e+01 6.32868290e+00
      1.10575838e+01 8.44517803e+00 5.79425478e+00 1.08498800e+00
      1.17584162e+01 8.09848499e+00 5.67977285e+00 3.63616562e+01
      1.16513916e+02 1.61346169e+01 3.74064560e+01 1.01434677e+02
      1.87184830e+01 5.80294685e+01 7.93608284e+00 1.87710533e+01
      7.85038614e+00 3.48604703e+00 9.07324696e+00 6.78629398e+00
      4.94944191e+00 3.56522894e+00 3.40048294e+01 8.43260269e+01
      3.27558517e+01 4.17772675e+01 7.48074341e+01 3.27374763e+01
      4.76553650e+01 6.26311684e+00 1.03478584e+01 4.80768108e+00
      4.46582890e+00 8.09317970e+00 5.10765123e+00 1.72179496e+00
      4.60708904e+00 3.33095169e+01 1.02655190e+02 2.33375435e+01
      3.86659660e+01 1.07032196e+02 1.86601353e+01 3.71105652e+01
      9.12723923e+00 1.06681070e+01 9.38876820e+00 7.97088718e+00
      9.14334583e+00 1.27817392e+01 1.33369637e+01 6.69911718e+00
      2.04904294e+00 4.40851173e+01 1.03946981e+01 5.63546801e+00
      3.68435593e+01 2.37187309e+01 3.86840057e+01 1.19778404e+01
      1.01090622e+01 4.39655209e+00 1.62685800e+00 7.03275979e-01
      1.27556524e+01 4.17156887e+00 4.84331608e+00 3.34981537e+01
      8.31933975e+01 3.19649124e+01 3.22695122e+01 7.48804855e+01
      3.31488609e+01 3.78500786e+01 1.12190313e+01 1.12986088e+01
      4.05194616e+00 5.17130423e+00 1.23876405e+00 9.66226768e+00
      7.35137892e+00 3.86844301e+00 2.96019306e+01 8.51700897e+01
      3.46702690e+01 2.40912457e+01 6.76185226e+01 4.33696327e+01
      3.33759232e+01 4.58976440e+01 4.49590302e+01 4.20623589e+00
      2.51031995e+00 3.22260499e+00 6.78569984e+00 5.94843388e+00
      5.08405018e+00 4.48817921e+00 1.02620630e+01 2.28440499e+00
      1.07284250e+01 9.84351921e+00 2.92673111e+00 4.27451515e+01
      3.76430244e+01 5.01608620e+01 5.43513012e+00 4.83025122e+00
      6.82698584e+00 5.55617094e+00 3.00235605e+00 2.05581993e-01
      4.94372988e+00 4.22843409e+00 1.31519103e+00 1.47772427e+01
      1.53217304e+00 2.39639711e+00 3.66495018e+01 3.97022896e+01
      4.48229103e+01 3.64293003e+00 8.18122387e+00 8.75188637e+00
      3.45682406e+00 9.21955109e+00 4.47444677e+00 5.56106710e+00
      1.62367268e+01 1.13805497e+00 1.81582909e+01 4.71970701e+00
      7.47062492e+00 3.37323418e+01 4.54225845e+01 5.58224602e+01
      7.63814592e+00 2.15262890e+00 4.03347206e+00 1.46405399e+00
      4.26857281e+00 1.66330802e+00 2.98458409e+00 7.62643290e+00
      3.38915896e+00 6.94199514e+00 4.29277182e+00 5.76335192e+00
      3.81168365e+01 4.24419785e+01 5.46225014e+01 5.66415787e+00
      2.89249706e+00 5.78595018e+00 4.73615694e+00 4.17315578e+00
      2.24545598e+00 4.46598196e+00 7.50383520e+00 2.50971293e+00
      1.23757029e+01 4.96003580e+00 2.87402105e+00 2.40338974e+01
      4.00882339e+01 3.87875252e+01 9.38601208e+00 9.46424675e+00
      1.04133101e+01 5.53888416e+00 8.90169525e+00 6.42815685e+00
      5.60793304e+00 8.13225746e+00 8.18237400e+00 1.27671223e+01
      4.23468113e+00 9.93402100e+00 2.20473480e+01 4.86351585e+01
      4.80859718e+01 4.20414591e+00 8.78293991e+00 8.54668903e+00
      8.45336723e+00 8.06421566e+00 4.19060707e+00 8.49597168e+00
      9.64620399e+00 6.86078882e+00 1.58616476e+01 9.33695889e+00
      7.07232618e+00 3.33653564e+01 3.89587173e+01 4.68138885e+01
      9.89928627e+00 7.29946089e+00 2.71554399e+00 9.75819588e+00
      1.17154131e+01 5.59498119e+00 1.77835960e+01 9.33926010e+00
      5.35465813e+00 1.81929913e+01 8.10507298e+00 1.23620901e+01
      3.85947037e+01 3.80145531e+01 3.91860733e+01 1.04197378e+01
      4.35881615e+00 1.88445699e+00 3.77412105e+00 6.27233696e+00
      6.31181383e+00 4.51487112e+00 3.73785210e+00 3.40484095e+00
      1.61750679e+01 7.36741686e+00 6.98673677e+00 3.45954170e+01
      4.52753410e+01 3.82310410e+01 1.62503548e+01 8.34161377e+00
      3.20745111e+00 1.59489737e+01 1.72221756e+01 7.66147971e-01
      2.18150253e+01 1.54497709e+01 4.49462223e+00 2.17612324e+01
      9.02676296e+00 6.23433685e+00 3.52558250e+01 1.26814384e+01
      1.21627140e+01 1.94991302e+00 4.17893600e+00 2.69438004e+00
      5.00375891e+00 5.71446514e+00 4.99331379e+00 2.86608100e+00
      7.43762922e+00 5.02146578e+00 6.83985281e+00 3.95085907e+00
      7.96675777e+00 3.53819504e+01 6.52549982e+00 1.91998959e+01
      3.55548501e+00 5.34765387e+00 2.75950789e+00 1.41417897e+00
      4.64806080e+00 6.14265680e+00 1.85860503e+00 7.09609699e+00
      7.53173113e+00 6.48309278e+00 6.01481295e+00 1.20577383e+01
      4.16458588e+01 1.52205667e+01 8.43232059e+00 3.89163804e+00
      2.99540401e+00 3.11757302e+00 2.54761696e+00 4.60733891e+00
      4.52905893e+00 4.61033106e+00 8.58259010e+00 3.75864410e+00
      1.21374912e+01 3.80586505e+00 7.50745296e+00 3.19757824e+01
      6.42562103e+00 2.70885696e+01 1.62382400e+00 3.24600011e-01
      3.28805900e+00 4.70875406e+00 6.49640894e+00 2.55521393e+00
      3.16726899e+00 1.05684004e+01 3.97748995e+00 5.98996592e+00
      1.22683105e+01 8.62664509e+00 5.23547363e+01 1.51205187e+01
      8.15986729e+00 1.21502771e+01 3.07298398e+00 2.30064297e+00
      6.89705992e+00 7.29675198e+00 5.01079512e+00 1.31082315e+01
      1.47972803e+01 6.25975513e+00 3.31102562e+01 4.03885078e+01
      1.84356098e+01 4.29999237e+01 9.24068928e+00 1.21670609e+01
      6.01778412e+00 5.65904522e+00 3.77668500e+00 8.65643215e+00
      8.79081535e+00 2.77469802e+00 9.22693825e+00 7.68324423e+00
      2.42729402e+00 5.58549213e+00 5.95739222e+00 7.54747105e+00
      4.34776649e+01 1.41056309e+01 1.39821186e+01 1.07894802e+01
      3.81061006e+00 5.42342806e+00 6.09425592e+00 6.13679600e+00
      5.34059906e+00 8.38630486e+00 7.25275278e+00 1.85621703e+00
      5.49180222e+00 1.09134789e+01 5.32826805e+00 2.07022705e+01
      1.00818052e+01 4.98200321e+00 2.38772049e+01 7.94892788e+00
      1.55136204e+00 1.92737236e+01 1.13372021e+01 3.64718890e+00
      2.07423878e+01 9.03453732e+00 1.28550601e+00 1.98392811e+01
      4.20244217e+00 2.83629608e+00 1.71502361e+01 8.94054031e+00
      9.55636883e+00 1.40123053e+01 6.12993097e+00 4.73945284e+00
      8.19309807e+00 1.39115086e+01 5.34464979e+00 6.55445814e+00
      1.01777468e+01 5.33616114e+00 3.37527108e+00 4.69884491e+00
      3.42078996e+00 3.93897133e+01 1.11758196e+00 1.85181808e+01
      2.08455491e+00 9.09166908e+00 5.57248402e+00 4.86192513e+00
      9.55797863e+00 1.79731596e+00 8.67253685e+00 6.12396479e+00
      4.18299103e+00 5.37986708e+00 3.62433910e+00 9.62245274e+00
      3.27681084e+01 9.50379753e+00 2.15931206e+01 7.01205902e+01
      7.92574463e+01 1.92857304e+01 6.27861671e+01 8.95458908e+01
      2.52825146e+01 3.54792557e+01 1.13421806e+02 2.24412746e+01
      2.55573511e+00 2.53393412e+00 1.17637453e+01 4.64828262e+01
      7.66315508e+00 2.35671310e+01 6.39028282e+01 9.33468094e+01
      2.24820538e+01 5.60866165e+01 1.00846039e+02 2.35645466e+01
      3.38511848e+01 1.17178513e+02 2.52862682e+01 6.50088215e+00
      2.95938611e+00 1.95010395e+01 3.86340866e+01 1.16216669e+01
      1.23210917e+01 6.54989014e+01 8.52137833e+01 2.69076862e+01
      6.48523483e+01 8.39097519e+01 3.20346375e+01 6.20202827e+01
      8.33237000e+01 3.49531822e+01 2.93790073e+01 6.59429884e+00
      1.00748396e+01 3.67412071e+01 5.55856323e+00 1.69384041e+01
      6.25985069e+01 8.36317215e+01 2.84650612e+01 6.24117966e+01
      7.81891403e+01 3.20076904e+01 5.45118523e+01 8.69815674e+01
      3.90029716e+01 3.06008110e+01 3.23168993e+00 2.26569901e+01
      3.21296806e+01 4.52263784e+00 2.02538605e+01 5.69934311e+01
      9.28315125e+01 2.76982040e+01 6.43606491e+01 9.53585129e+01
      2.50517025e+01 4.68307648e+01 1.14904884e+02 2.79401073e+01
      1.11821346e+01 6.64085579e+00 2.11132183e+01 4.40919495e+01
      7.62193108e+00 1.09470110e+01 5.55011597e+01 8.92727203e+01
      2.43954296e+01 5.59487534e+01 8.28425217e+01 3.02972088e+01
      3.84704628e+01 1.04984131e+02 2.79558640e+01 1.43506660e+01
      8.62591839e+00 9.94253254e+00 2.74799366e+01 4.09799194e+00
      1.20344391e+01 5.48183517e+01 8.35374680e+01 2.37306099e+01
      4.86704140e+01 8.75637970e+01 2.18894997e+01 4.95456657e+01
      7.97288589e+01 2.43086929e+01 2.40893669e+01 8.21414375e+00
      6.43657923e+00 3.69595451e+01 8.28497314e+00 1.49478722e+01
      6.88243942e+01 9.41203995e+01 2.19863148e+01 6.62161255e+01
      8.62267990e+01 1.98916817e+01 6.88707581e+01 8.45026855e+01
      3.35134773e+01 3.94793015e+01 6.94145679e+00 1.35415115e+01
      3.17511082e+01 4.02221584e+00 1.82417755e+01 5.08802834e+01
      8.40777283e+01 2.63948135e+01 4.71293869e+01 8.66978607e+01
      2.20578384e+01 4.55425453e+01 8.05302200e+01 2.10782127e+01
      2.32128258e+01 9.84561920e+00 9.56752300e+00 3.20469322e+01
      2.90692806e+00 1.65071487e+01 6.56173706e+01 8.51275406e+01
      2.87858829e+01 5.97643280e+01 8.74199371e+01 2.88591061e+01
      5.56053162e+01 8.46261444e+01 3.04142265e+01 2.41076889e+01
      8.41095829e+00 1.10245857e+01 4.48118248e+01 2.24734402e+00
      1.65900345e+01 3.90738010e+00 1.03719902e+00 5.72225618e+00
      2.42599010e+01 7.92442245e+01 5.06376381e+01 2.73874836e+01
      8.94648743e+01 3.86210365e+01 1.89316673e+01 1.25726013e+01
      2.45550799e+00 3.76244965e+01 9.24888134e+00 1.55956173e+01
      1.39436884e+01 6.96726513e+00 3.05539608e+00 2.35517845e+01
      8.76730881e+01 2.56565456e+01 2.60307827e+01 7.32367172e+01
      3.65421410e+01 1.72616482e+01 1.47734184e+01 5.48913002e-01
      4.61282349e+01 4.91581297e+00 2.05253258e+01 1.83945427e+01
      5.31686306e+00 7.11963701e+00 3.60396461e+01 1.00389824e+02
      2.85372620e+01 3.23455048e+01 9.34615555e+01 3.45946236e+01
      1.67371883e+01 8.44527054e+00 1.31117144e+01 4.48083992e+01
      4.50131798e+00 1.59218407e+01 5.67671108e+00 2.91281009e+00
      3.30898094e+00 4.70628204e+01 1.07593445e+02 2.33101768e+01
      4.49971313e+01 1.02337257e+02 2.86790867e+01 2.23462238e+01
      1.19015896e+00 1.55525265e+01 2.65304699e+01 6.00831318e+00
      1.75950356e+01 1.82615547e+01 3.65571404e+00 3.71606112e+00
      3.87810669e+01 9.97070694e+01 3.35224380e+01 3.92333221e+01
      9.46613998e+01 3.07499886e+01 1.70654736e+01 7.71652985e+00
      4.52126312e+00 2.53224792e+01 1.80378819e+01 1.20673151e+01
      3.22412453e+01 4.18272018e+00 1.02414904e+01 6.42988358e+01
      8.53225784e+01 3.53949852e+01 6.63254242e+01 8.59167862e+01
      5.01862068e+01 3.35299797e+01 4.81464911e+00 2.10734024e+01
      2.61591492e+01 1.11370726e+01 9.39257431e+00 3.24978676e+01
      5.53092289e+00 2.12099953e+01 5.86905518e+01 8.81624680e+01
      4.44555931e+01 6.62206268e+01 8.28894577e+01 5.30752144e+01
      2.64918652e+01 8.71938419e+00 2.04029713e+01 2.76557426e+01
      8.82669735e+00 1.04269867e+01 2.42283115e+01 4.13815689e+00
      1.58736598e+00 4.35041504e+01 8.94357071e+01 3.45463104e+01
      4.93376808e+01 8.55511551e+01 3.94304886e+01 2.34111881e+01
      3.34063292e+00 1.54380178e+01 3.62604523e+01 2.52578402e+00
      1.24139872e+01 6.88951206e+00 1.64630795e+00 7.15451097e+00
      4.18152847e+01 9.40488434e+01 2.58113003e+01 3.28516502e+01
      9.87663193e+01 2.93092384e+01 1.36123724e+01 3.14753509e+00
      2.45668011e+01 2.47980423e+01 8.93664742e+00 9.57007694e+00
      2.30750961e+01 2.09690037e+01 7.10737705e+00 4.34186249e+01
      8.54955673e+01 2.35894833e+01 4.54922142e+01 7.89220200e+01
      2.30598431e+01 2.06855469e+01 1.31089878e+01 7.38168287e+00
      2.45966454e+01 2.97369080e+01 2.50819473e+01 8.88402367e+00
      6.55901909e+00 4.56588000e-01 2.98278599e+01 1.02927284e+02
      1.82400742e+01 1.27255268e+01 9.74014282e+01 1.77778587e+01
      1.50980358e+01 1.67960758e+01 6.54792118e+00 5.02526207e+01
      2.80772629e+01 3.00402985e+01 2.23748856e+01 2.02698898e+00
      4.30611277e+00 4.88417816e+01 1.03821815e+02 3.07674179e+01
      5.46140213e+01 9.62783737e+01 3.30561981e+01 2.65966702e+01
      9.64153767e+00 4.51622295e+00 4.67203484e+01 2.52025661e+01
      2.42100754e+01 1.72607174e+01 9.71249008e+00 3.67592907e+00
      2.89473286e+01 7.58444138e+01 2.87557087e+01 3.01459599e+01
      6.58096848e+01 4.02303391e+01 1.68482857e+01 4.84066677e+00
      8.47394657e+00 2.80243320e+01 4.01192322e+01 2.54967823e+01
      1.30166712e+01 7.59635401e+00 1.40710812e+01 3.28132210e+01
      1.13327515e+02 2.70557766e+01 2.40945148e+01 1.06255875e+02
      2.42393036e+01 2.69515705e+00 1.26294403e+01 4.08914518e+00
      3.48872528e+01 2.29805679e+01 3.08635998e+01 3.88119411e+00
      2.06498790e+00 2.77269411e+00 3.81374016e+01 1.03151436e+02
      2.56182156e+01 2.93286858e+01 9.74009476e+01 2.43519611e+01
      5.86465216e+00 4.53646517e+00 1.22723751e+01 4.42625771e+01
      2.71257019e+01 1.52568827e+01 2.07133636e+01 3.40637302e+00
      9.88431358e+00 4.82673759e+01 8.84760284e+01 2.97696075e+01
      5.34481430e+01 8.60226669e+01 3.65398750e+01 3.41939774e+01
      5.61790609e+00 1.82240982e+01 3.44242821e+01 2.08199768e+01
      2.36082249e+01 1.18648987e+01 2.66908097e+00 5.03247595e+00
      4.28552132e+01 9.31951141e+01 3.52976074e+01 4.30773048e+01
      9.02928162e+01 4.35133820e+01 1.35428467e+01 2.54353094e+00
      2.14200344e+01 2.30152531e+01 2.37518692e+01 6.53519583e+00
      3.76314807e+00 1.19111404e+01 3.37922692e+00 1.10320253e+01
      8.70608368e+01 2.82732601e+01 6.14585304e+00 8.65654755e+01
      2.99383945e+01 1.28126516e+01 4.85148888e+01 2.64600201e+01
      2.55938168e+01 2.72469540e+01 2.01444588e+01 2.08150787e+01
      5.13893223e+00 1.26167564e+01 4.98276367e+01 8.80111084e+01
      3.39218979e+01 4.93120232e+01 9.03737640e+01 3.79042206e+01
      2.17773952e+01 2.44604611e+00 1.31323881e+01 2.58444538e+01
      2.48256645e+01 2.67603054e+01 1.71654930e+01 1.73410499e+00
      1.29637032e+01 4.76614075e+01 7.90482864e+01 3.37577820e+01
      4.49844437e+01 8.12835312e+01 3.55498505e+01 6.11323023e+00
      3.00899100e+00 1.31520205e+01 3.74901352e+01 3.24958839e+01
      2.37455902e+01 1.02635698e+01 5.49086523e+00 1.26148295e+00
      1.50892963e+01 8.65042877e+00 9.23009014e+00 4.89127884e+01
      7.94480286e+01 4.51867561e+01 6.70138474e+01 7.18758774e+01
      3.79876633e+01 2.99981308e+01 4.35240288e+01 2.51211491e+01
      1.54174538e+01 5.85209084e+00 7.58917189e+00 1.65290012e+01
      7.25466013e-01 7.43987513e+00 2.43807926e+01 1.20390556e+02
      1.91993504e+01 1.57670345e+01 1.14411766e+02 1.54727364e+01
      3.46226006e+01 3.70173798e+01 2.76696377e+01 2.74103904e+00
      8.57751274e+00 2.24332309e+00 1.42921782e+01 6.37814283e+00
      1.19994774e+01 4.59195099e+01 9.41209488e+01 4.40255852e+01
      5.59953003e+01 8.82667694e+01 3.77747993e+01 4.60516968e+01
      5.46537628e+01 1.32254114e+01 1.47819071e+01 1.06405058e+01
      4.25186491e+00 2.63992157e+01 6.57390022e+00 1.33315239e+01
      7.15946732e+01 7.28593140e+01 4.92750282e+01 8.41134262e+01
      6.13111382e+01 4.93152962e+01 4.21902542e+01 3.07821007e+01
      1.91352310e+01 8.14978218e+00 7.03450024e-01 2.85570407e+00
      1.28727989e+01 7.64964008e+00 1.07765827e+01 4.14847603e+01
      9.48287277e+01 2.63664856e+01 5.32166061e+01 9.11625366e+01
      3.01457024e+01 3.81716309e+01 2.87497768e+01 2.39547081e+01
      7.15484190e+00 3.57810402e+00 5.52670097e+00 9.36308575e+00
      5.57199621e+00 1.28367424e+01 4.31759911e+01 9.43454819e+01
      3.03346958e+01 5.66974716e+01 9.10825348e+01 3.42316093e+01
      3.37771645e+01 4.45710144e+01 9.71220684e+00 2.33584189e+00
      1.28854017e+01 6.26699114e+00 6.82007504e+00 3.73656297e+00
      1.88839602e+00 6.50523682e+01 8.41137314e+01 1.52543764e+01
      4.66495171e+01 9.21434250e+01 1.28449812e+01 3.30798988e+01
      4.24096642e+01 1.57985439e+01 5.41647720e+00 5.49888182e+00
      2.51430392e+00 1.11494446e+01 1.19487500e+00 2.33976889e+00
      4.86731949e+01 9.85415955e+01 1.60545979e+01 3.43715630e+01
      1.04661797e+02 1.45016108e+01 4.06808052e+01 4.08012962e+01
      8.90920734e+00 5.69122791e+00 5.98132801e+00 2.10084200e+00
      4.61614513e+00 2.72162795e+00 1.29805505e+00 4.07102203e+01
      1.08934662e+02 1.28806543e+01 3.57084198e+01 1.12317368e+02
      1.41302328e+01 3.65147476e+01 4.54465141e+01 1.47602262e+01
      4.54903316e+00 8.01008511e+00 5.28561592e+00 6.94284916e+00
      3.84350009e-02 9.97313023e-01 4.64689941e+01 9.76121597e+01
      1.71540165e+01 3.68635941e+01 1.07383316e+02 1.65517788e+01
      3.51665001e+01 1.01335354e+01 2.40035858e+01 2.04141617e+01
      6.53976593e+01 5.32802086e+01 1.07031298e+00 1.06110344e+01
      5.50169277e+00 5.08689880e+00 6.81057978e+00 2.68486190e+00
      1.22573471e+01 2.93273902e+00 6.85789299e+00 2.71775398e+01
      7.16571188e+00 7.38268089e+00 2.79790516e+01 5.93100128e+01
      4.30883636e+01 5.83302307e+00 1.32018852e+01 5.08409309e+00
      5.46263504e+00 7.35322905e+00 7.03798485e+00 2.04496498e+01
      1.11424313e+01 6.31177521e+00 3.42026711e+01 1.29232960e+01
      4.43652678e+00 7.95448399e+00 6.97488480e+01 4.10986710e+01
      3.17931795e+00 9.59010983e+00 1.40558398e+00 8.34449387e+00
      5.96659613e+00 8.71905029e-01 1.04708548e+01 2.61567712e+00
      4.25702810e+00 2.52809277e+01 1.52535114e+01 4.16131897e+01
      1.94610214e+01 7.96602325e+01 4.57918243e+01 1.43771303e+00
      7.27087879e+00 2.00640202e+00 2.45673108e+00 6.49431276e+00
      1.43968904e+00 7.42335796e+00 3.55997109e+00 7.06969309e+00
      2.04401455e+01 1.41172056e+01 3.95285988e+01 1.67253056e+01
      7.36082916e+01 3.62047043e+01 1.27691793e+01 5.44095917e+01
      1.83371696e+01 9.32509136e+00 8.84025860e+00 3.29100204e+00
      1.00461292e+01 9.61772025e-01 5.56873608e+00 4.26008148e+01
      1.62839794e+00 5.64129496e+00 2.93203716e+01 5.93919411e+01
      3.77414360e+01 2.66427112e+00 1.93431401e+00 5.44487619e+00
      8.68374443e+00 1.60825205e+00 4.10531521e+00 1.47439842e+01
      4.49654388e+00 5.94535017e+00 2.98714504e+01 9.30331230e+00
      1.70078239e+01 3.10723743e+01 8.19736328e+01 3.31150932e+01
      3.07963991e+00 6.66993093e+00 2.96903896e+00 1.17545385e+01
      1.03969717e+01 5.00391197e+00 1.73890553e+01 5.20168591e+00
      6.15453196e+00 3.88406525e+01 1.07839518e+01 1.49972420e+01
      4.09154358e+01 5.17298126e+01 3.11352978e+01 3.21229005e+00
      3.55081201e+00 4.85793877e+00 1.30593462e+01 1.99714804e+00
      4.00807095e+00 2.21574364e+01 2.84796000e+00 3.50114107e+00
      3.69577942e+01 1.68993607e+01 2.14567776e+01 4.98295403e+01
      7.69934998e+01 3.50172424e+01 8.94831181e+00 8.46775532e+00
      1.60430396e+00 6.86406183e+00 5.03010702e+00 3.71416402e+00
      2.09780788e+01 4.63137102e+00 3.63058901e+00 3.63597107e+01
      1.29046278e+01 1.27755880e+01 5.56802597e+01 6.79342194e+01
      2.86836052e+01 6.37555885e+00 5.52466989e-01 4.15725183e+00
      1.44418468e+01 1.58407497e+00 2.39259100e+00 3.34916267e+01
      6.14518499e+00 1.49783003e+00</data></samples>
  <responses type_id="opencv-matrix">
    <rows>110</rows>
    <cols>1</cols>
    <dt>f</dt>
    <data>
      0. 0. 0. 0. 0. 0. 0. 0. 0. 0. 1. 1. 1. 1. 1. 1. 1. 1. 1. 1. 2. 2.
      2. 2. 2. 2. 2. 2. 2. 2. 3. 3. 3. 3. 3. 3. 3. 3. 3. 3. 4. 4. 4. 4.
      4. 4. 4. 4. 4. 4. 5. 5. 5. 5. 5. 5. 5. 5. 5. 5. 6. 6. 6. 6. 6. 6.
      6. 6. 6. 6. 7. 7. 7. 7. 7. 7. 7. 7. 7. 7. 8. 8. 8. 8. 8. 8. 8. 8.
      8. 8. 9. 9. 9. 9. 9. 9. 9. 9. 9. 9. 10. 10. 10. 10. 10. 10. 10.
      10. 10. 10.</data></responses></opencv_ml_knn>
</opencv_storage>
